patient 0.099506 -0.003832 -0.442750 0.473256 0.032259 -0.410755 0.147594 -0.045805 0.012355 0.426275
liver -0.319644 -0.677255 -0.697611 1.016737 -0.392323 0.510499 0.132244 0.685387 0.937816 0.490351
hepatitis 0.219729 -0.275521 -0.306736 0.402186 -0.008090 1.360175 0.563864 0.799934 -0.428639 -0.276580
hepatic 0.095305 -0.592601 -0.472166 0.513137 -0.044669 0.635858 -0.735791 0.576415 0.677925 -0.394313
organ -0.431485 -0.215287 -0.214201 -0.025118 0.897055 0.481692 0.872647 -0.034922 -0.265029 -0.067112