patient 0.099506 -0.003832 -0.442750 0.473256 0.032259 -0.410755 0.147594 -0.045805 0.012355 0.426275 
liver -0.112169 -0.634928 -0.584888 0.764937 -0.218496 0.573179 -0.301773 0.630901 0.807870 0.048019 
hepatitis 0.219729 -0.275521 -0.306736 0.402186 -0.008090 1.360175 0.563864 0.799934 -0.428639 -0.276580 
hepatic 0.095305 -0.592601 -0.472166 0.513137 -0.044669 0.635858 -0.735791 0.576415 0.677925 -0.394313 
organ -0.219959 -0.414526 -0.371364 0.306959 0.382736 0.543105 0.176932 0.284368 0.238934 -0.120130 
